34 128
21 0.0597952 0.0286708 -0.471685 0.152112 0.329056 0.043126 -0.0695265 -0.0448685 0.202131 -0.021722 0.119308 -0.16137 0.0676819 0.0885002 -0.140971 0.0234722 0.00600229 -0.223266 -0.105864 0.218549 -0.0647009 -0.350432 0.202973 0.0592437 0.137491 -0.242967 0.135584 0.181121 0.164607 0.0600875 0.0427729 0.0267103 -0.149087 -0.0269414 0.0384665 0.204778 0.286262 -0.213692 -0.132097 0.210347 -0.279536 -0.00782461 0.00106005 0.369812 -0.0625249 0.117292 -0.143979 -0.400747 0.154376 0.247116 0.0713532 0.0235618 0.0596935 0.0484232 -0.423806 -0.163754 0.235494 -0.0498701 -0.283917 0.0204497 -0.156163 -0.30228 0.0729769 0.0757727 0.0750843 -0.240643 -0.0783742 -0.0728057 -0.0297128 -0.313525 -0.250059 0.126504 -0.201777 -0.173873 0.156742 0.265169 -0.0431055 -0.139742 -0.0816608 -0.149583 0.0773423 0.0886913 -0.294864 -0.0740988 0.138587 0.0539782 -0.0657234 0.330702 -0.0572036 -0.220593 0.0602865 0.0433255 0.026944 -0.151595 0.0259128 -0.138608 0.195247 -0.0758136 -0.0690643 -0.326235 -0.22392 -0.0851408 0.123199 -0.0403292 -0.0381974 0.0545745 0.121767 -0.116697 -0.119491 -0.0435884 -0.242113 0.165016 0.0367681 -0.151016 0.384017 0.0997548 -0.192128 0.311058 0.281133 -0.232942 -0.105692 -0.276176 0.196636 -0.00705429 -0.177639 -0.053127 -0.313513 -0.0242723
33 0.0888727 0.08852 -0.328102 -0.0119351 0.279144 0.142855 -0.040371 -0.0695582 0.103887 -0.0941605 0.124631 -0.143086 0.101094 0.0486638 -0.118955 0.0351056 0.036391 -0.13228 -0.0778766 0.14789 -0.0440037 -0.337614 0.274479 0.0100779 0.0185615 -0.272639 0.179735 0.151234 0.172033 0.13322 -0.0972283 -0.0163819 -0.0954851 -0.109517 0.0243393 0.254139 0.253895 -0.223461 -0.169622 0.190481 -0.281596 0.0330208 0.0733682 0.373188 -0.142335 0.222442 -0.119541 -0.346809 0.0972794 0.206808 0.0867396 0.0464606 0.0136209 0.0905823 -0.326566 -0.221773 0.207538 -0.113514 -0.184892 0.0978619 -0.107355 -0.214192 0.101919 0.167601 0.0625343 -0.190057 -0.0989052 -0.0521804 -0.123298 -0.197258 -0.183439 0.243558 -0.186873 -0.138696 0.0907452 0.2823 0.0075188 -0.0239177 -0.172296 -0.0791251 0.0328955 0.0882069 -0.301679 0.00672503 0.0309001 0.0928665 -0.166133 0.416105 -0.0783878 -0.345628 0.234704 0.111559 -0.0347787 -0.059239 0.115758 -0.168813 0.141778 -0.127358 -0.051116 -0.297694 -0.224734 -0.0305445 -0.00763155 -0.00938034 0.0670676 -0.00628448 0.173021 -0.108327 -0.205209 -0.124191 -0.166077 0.156993 0.175832 -0.110134 0.34359 0.0072283 -0.146722 0.278395 0.288359 -0.167779 -0.0666109 -0.268363 0.180282 -0.0013272 -0.111698 -0.0859367 -0.288267 0.0417467
23 0.0253931 0.0176797 -0.483663 0.160533 0.363106 0.00339917 -0.061631 -0.0633544 0.197269 -0.0146498 0.101593 -0.174691 0.0830563 0.051564 -0.148742 0.0253924 0.00101395 -0.232893 -0.122196 0.209317 -0.0820409 -0.385888 0.209095 0.0651326 0.1266 -0.240737 0.118897 0.164072 0.158341 0.0873779 0.0342727 0.030373 -0.17225 -0.0542772 0.00275582 0.189634 0.321498 -0.20196 -0.116593 0.194122 -0.293312 -0.00526633 -0.00584945 0.39331 -0.0533512 0.137989 -0.188131 -0.393369 0.136559 0.242856 0.0390802 0.0564308 0.0312889 0.0449446 -0.461671 -0.183327 0.233888 -0.083468 -0.32104 -0.00235404 -0.164594 -0.301477 0.0519944 0.0623889 0.101295 -0.258746 -0.0617294 -0.0939744 -0.00616147 -0.298869 -0.258493 0.133658 -0.206916 -0.19293 0.149747 0.263403 -0.031245 -0.160206 -0.0735909 -0.178618 0.0898729 0.0974028 -0.33297 -0.075341 0.157147 0.0207397 -0.0764984 0.351425 -0.0278265 -0.234552 0.0729229 0.0489408 -0.00606087 -0.133383 0.0171507 -0.126494 0.178614 -0.0963775 -0.0820275 -0.322852 -0.213526 -0.075049 0.133516 -0.0287925 -0.0526712 0.0266544 0.111242 -0.102768 -0.158651 -0.0500109 -0.24666 0.162768 0.0270227 -0.155344 0.402576 0.137286 -0.215005 0.355001 0.283295 -0.238296 -0.0996704 -0.279592 0.213531 -0.000587709 -0.200491 -0.0612244 -0.335056 0.0109401
34 0.125402 0.107372 -0.343007 0.00603709 0.28885 0.220913 -0.119794 -0.0289411 0.174824 -0.103728 0.148766 -0.162295 0.0758402 0.118314 -0.163668 0.0387802 0.031472 -0.151614 -0.0123142 0.196887 -0.0738589 -0.336839 0.258789 0.0853821 0.130222 -0.247724 0.273353 0.227003 0.191245 0.0859535 -0.0447378 0.00554436 -0.0762684 -0.0624432 0.0665978 0.32164 0.254311 -0.27046 -0.141033 0.188889 -0.264592 0.062375 0.0706265 0.327618 -0.146654 0.158705 -0.0645322 -0.323285 0.146801 0.245961 0.142556 -0.0253028 0.0921909 0.0663249 -0.324018 -0.150867 0.259825 -0.073208 -0.150159 0.131568 -0.12313 -0.196633 0.154444 0.202304 0.0575434 -0.18319 -0.189318 -0.0610242 -0.070888 -0.293158 -0.201754 0.167461 -0.139693 -0.133494 0.0764277 0.341754 0.0221784 -0.00785227 -0.232505 -0.0812236 0.00344651 0.0354672 -0.269396 -0.00680427 -0.0162107 0.0785862 -0.1408 0.419344 -0.143527 -0.283112 0.190514 0.0510195 -0.0300086 -0.163685 0.108292 -0.180844 0.217342 -0.0822625 -0.085113 -0.357949 -0.260649 -0.0493281 0.0337194 -0.118792 0.0165948 0.104695 0.15342 -0.111858 -0.113124 -0.13083 -0.220446 0.193087 0.190132 -0.110496 0.33859 -0.0445153 -0.155186 0.203633 0.360627 -0.174003 -0.0835477 -0.286275 0.157642 -0.00621996 -0.0892186 -0.0176926 -0.305542 -0.0679901
10 0.0327587 -0.0505867 -0.0733434 0.10253 0.279198 0.0535021 0.249223 -0.0742515 0.080524 -0.0599932 -0.0358587 -0.230465 0.0601566 0.00723019 0.054324 -0.116536 0.126971 -0.139796 -0.39603 0.233702 -0.0126542 -0.201384 0.450733 0.0308689 -0.163274 -0.32142 0.231985 0.1957 0.0116735 0.0539305 -0.0524309 0.112728 -0.133768 0.00162501 -0.106612 0.119486 0.210259 -0.23825 -0.234854 0.0394991 -0.246334 0.191076 0.184813 0.346968 -0.113357 0.0293313 -0.164696 -0.384208 0.0441582 0.109244 0.0195571 -0.0252176 0.0699524 0.191568 -0.139335 -0.376166 0.265208 -0.0409926 -0.21323 0.129002 -0.107779 -0.309273 0.0248185 0.124473 0.092955 -0.345826 -0.152408 0.0525634 -0.251386 -0.0714077 -0.0303069 0.0633344 -0.324476 -0.0867248 0.19115 0.166115 0.062102 0.0410921 -0.329575 -0.0699275 0.060638 0.223758 -0.267445 -0.122343 0.108745 0.18711 -0.297807 0.295736 -0.133234 -0.206752 0.182202 0.00634624 0.0444491 -0.0010371 0.00771256 -0.0359394 0.0357862 -0.0915869 -0.0365355 -0.20862 -0.216767 -0.138857 0.010849 0.00633588 0.129367 -0.0395895 0.237429 -0.200805 -0.285931 -0.147963 0.0529579 0.100165 0.204156 -0.0340147 0.429353 0.112738 -0.22702 0.236246 0.297955 -0.0387144 -0.0105726 -0.0352024 0.163696 0.00397476 -0.173295 -0.00660789 -0.111123 0.154516
28 0.0366456 -0.108071 -0.154922 0.00255235 0.239798 0.187014 0.0643138 -0.0272772 0.107023 -0.0944634 0.0659513 -0.210457 0.119679 0.0399662 -0.0849578 -0.117723 0.0932734 -0.0790492 -0.304796 0.241835 -0.0781824 -0.410262 0.420512 0.129558 -0.127781 -0.334109 0.338777 0.192772 0.125306 0.187334 -0.174473 0.0239278 -0.0923717 -0.169046 -0.124843 0.136281 0.327728 -0.24811 -0.138159 0.0329113 -0.191731 0.101998 0.235184 0.372515 -0.226877 0.150817 -0.223516 -0.349705 0.0267507 0.175032 0.0193184 0.0314873 0.120277 -0.00687806 -0.209572 -0.284598 0.373745 -0.160625 -0.227286 0.0829997 -0.143011 -0.205126 0.0784486 0.216736 0.117079 -0.316529 -0.159257 0.128834 -0.0907369 -0.130451 -0.0214116 0.0632026 -0.147089 -0.23491 0.0874798 0.227312 0.194713 -0.0128138 -0.397005 -0.0745879 -0.0702824 0.162573 -0.198564 -0.0534842 0.115878 0.0893763 -0.224846 0.442095 -0.0761375 -0.31573 0.303263 0.0385193 -0.133468 -0.0125514 0.0901553 -0.198489 0.0525982 -0.143917 -0.0920274 -0.253666 -0.306555 -0.0686397 0.0346654 -0.161444 0.0119115 0.0723991 0.289382 -0.00996484 -0.215639 -0.242054 -0.11598 0.240787 0.180329 -0.0886983 0.425677 0.00347515 -0.244813 0.196937 0.300649 -0.0851625 -0.066419 -0.21212 0.219792 0.0515888 -0.116727 -0.00507735 -0.187945 0.130416
19 0.0855056 0.0281176 -0.514803 0.187133 0.359786 0.0740028 -0.0880665 -0.0727911 0.229339 -0.0135654 0.155712 -0.174741 0.0709012 0.110034 -0.16999 0.0551399 -0.0254287 -0.264435 -0.100833 0.219798 -0.0444835 -0.385458 0.191685 0.0641991 0.147562 -0.267231 0.129752 0.147123 0.182123 0.0175994 0.0689963 0.00367287 -0.128463 -0.00946946 0.0436426 0.215112 0.311261 -0.238935 -0.169037 0.229693 -0.308865 0.00285009 0.011232 0.418027 -0.0768317 0.10635 -0.142829 -0.411687 0.141198 0.287107 0.107305 0.0614083 0.0449296 0.0594334 -0.494427 -0.164844 0.239585 -0.0556709 -0.294351 0.0390046 -0.206416 -0.322186 0.0363797 0.0991702 0.0659668 -0.222067 -0.11115 -0.0644928 -0.0580656 -0.378891 -0.263115 0.151112 -0.238614 -0.202535 0.133163 0.251792 -0.0323278 -0.199436 -0.0943497 -0.213384 0.107469 0.121106 -0.298351 -0.0614525 0.159918 0.0365033 -0.0553165 0.344412 -0.0614954 -0.246957 0.0413132 0.0305696 0.0336988 -0.180283 0.0233623 -0.188009 0.242734 -0.0803052 -0.0529609 -0.349608 -0.208054 -0.0603048 0.121003 -0.0228318 -0.052593 0.0537472 0.12576 -0.121852 -0.128746 -0.0472164 -0.268795 0.210838 0.065487 -0.1951 0.389615 0.132998 -0.201517 0.356059 0.28384 -0.295776 -0.107176 -0.319769 0.229503 -0.0551371 -0.199312 -0.0560521 -0.342704 -0.00280488
20 0.0806188 0.10684 -0.303512 0.00116129 0.179438 -0.148079 0.0467568 -0.0202054 0.0643869 -0.118649 -0.0382811 -0.10455 0.0627041 0.0186347 0.0632755 -0.0513777 0.145368 -0.115948 -0.188706 0.175932 -0.034321 -0.163994 0.297272 -0.0752813 -0.0354985 -0.238019 0.235538 0.276286 0.126351 0.108463 -0.0661409 0.0970167 -0.238664 -0.0458733 0.0857306 0.0464775 0.167762 -0.0758954 -0.0946683 0.193622 -0.200747 -0.0325783 -0.013826 0.275186 -0.0778641 0.166687 -0.0711651 -0.450372 0.217893 0.0592382 0.026612 -0.138641 0.0684942 0.0908783 -0.172552 -0.266 0.263702 -0.00344805 -0.162496 0.0693275 0.0150387 -0.285935 0.247579 0.0529395 0.0522345 -0.296614 0.116547 -0.0212825 -0.0823846 0.00639493 -0.0552966 0.121936 -0.277315 -0.0750685 0.346716 0.170936 -0.0956836 0.0844302 -0.0375295 0.134735 0.0832452 0.122374 -0.253813 -0.21844 0.0684404 0.272667 -0.176246 0.284845 -0.138026 -0.185506 0.0864738 0.0859428 0.112085 0.00323664 0.0884807 -0.0201055 0.038203 -0.0629673 -0.0793137 -0.161414 -0.24426 -0.111689 0.0540785 -0.0425867 0.180283 -0.058722 0.221917 -0.201424 -0.11684 0.00842577 -0.0743831 -0.0453136 -0.0340341 -0.0153396 0.352415 0.00619099 -0.114638 0.239031 0.237445 0.0288328 -0.0923149 -0.0924339 0.0462106 0.107305 -0.205448 -0.0806966 -0.124203 0.0312719
2 0.156388 0.0596014 -0.138154 0.059176 0.230072 0.0443685 0.134549 -0.0192982 0.0862985 -0.10314 -0.0920881 -0.204415 0.0516708 0.127841 0.0694866 -0.0825976 0.167374 -0.169637 -0.138437 0.200565 -0.0104067 -0.0962728 0.380872 0.0370141 0.0146304 -0.28895 0.32621 0.3534 0.0742821 -0.00661811 0.0216133 0.110286 -0.13516 0.110055 0.0494571 0.174408 0.102183 -0.160054 -0.20385 0.0655038 -0.253447 0.133735 0.0684706 0.216376 -0.0875463 -0.00770431 0.0394306 -0.382098 0.146349 0.106924 0.153304 -0.175714 0.181382 0.20821 -0.113822 -0.253906 0.327023 0.0683595 -0.0874217 0.14995 -0.0261943 -0.30426 0.21855 0.127241 0.0705227 -0.282361 -0.0979275 -0.0388458 -0.183045 -0.0329245 0.00532565 0.0581447 -0.252548 -0.022364 0.208224 0.196874 -0.0301564 0.159728 -0.211275 0.0820451 0.0456495 0.168344 -0.231239 -0.187579 0.00843551 0.261855 -0.269556 0.254653 -0.229778 -0.0689137 0.0571997 -0.0575514 0.118428 -0.070942 0.0729416 0.0383546 0.170214 -0.00386989 -0.0618264 -0.271329 -0.24261 -0.202507 0.00442758 -0.121525 0.152318 0.000728637 0.167743 -0.228285 -0.0941792 -0.0505378 0.0213593 -0.019759 0.145088 -0.000205218 0.353099 -0.00717256 -0.1961 0.114745 0.396547 0.0141644 -0.0711444 -0.0307318 0.0410546 0.0464929 -0.114261 0.0289277 -0.0922862 0.00473581
8 0.113423 0.1234 0.00800257 -0.0861959 0.145981 -0.0118254 0.160098 -0.0656255 0.0298536 -0.182649 -0.00939777 -0.11164 0.0573595 0.0203528 0.13888 -0.084827 0.168911 -0.0770496 -0.286105 0.20423 -0.0278921 -0.0379762 0.379431 -0.0887747 -0.0661731 -0.316078 0.465883 0.339956 0.0319941 -0.00103436 -0.0827931 0.216523 -0.159827 0.0371709 -0.0358482 0.0656933 0.110753 -0.264563 -0.163041 0.0370506 -0.0977666 0.156371 0.0965596 0.308574 -0.187911 0.0808989 -0.00643957 -0.327946 0.103487 0.0257044 0.0792392 -0.158803 0.040021 0.242685 0.00710752 -0.389002 0.281252 0.00110397 -0.0372325 0.279111 -0.0202184 -0.205597 0.265488 0.157641 0.029436 -0.352545 -0.0658744 -0.000733715 -0.2862 0.0398642 0.13278 0.11511 -0.416244 -0.0172286 0.344344 0.146246 0.114574 0.188862 -0.395825 0.0917781 0.0806437 0.214512 -0.201876 -0.277559 -0.0970931 0.280922 -0.377909 0.344216 -0.326982 -0.20483 0.131504 -0.0354324 0.115363 -0.00282362 0.13652 -0.0851632 0.0732591 -0.0100364 -0.122228 -0.22042 -0.2416 -0.0831159 -0.0996498 -0.126837 0.330893 -0.0417737 0.331739 -0.305167 -0.164248 -0.118565 0.113293 0.0538692 0.203354 -0.0377166 0.442518 -0.0242062 -0.109147 0.135772 0.406192 0.150414 0.004268 0.0180934 -0.0346078 0.0580865 -0.222782 0.0301124 0.0603693 0.0883885
1 0.0854628 0.141472 -0.0812983 -0.0573083 0.263478 -0.0214066 0.150147 -0.0174889 0.040159 -0.162216 -0.11961 -0.192758 0.0823627 0.0369741 0.0871578 -0.0840161 0.210847 -0.112431 -0.125069 0.195949 -0.0923841 -0.0810131 0.41316 0.00603912 0.0431219 -0.281688 0.390359 0.433917 0.0531745 0.0894832 -0.0376447 0.195656 -0.197365 0.0423228 -0.00685359 0.219925 0.112617 -0.19256 -0.137657 0.0202166 -0.232673 0.150427 0.0291535 0.226945 -0.0805412 0.0858907 0.0036919 -0.340711 0.142939 0.0433962 0.092671 -0.184419 0.122457 0.253358 -0.0537807 -0.31623 0.307394 0.007911 -0.102753 0.167266 0.0472323 -0.239216 0.302284 0.119607 0.117778 -0.359065 -0.0777031 -0.150318 -0.168569 0.0557261 0.00826013 0.120332 -0.251746 0.0192866 0.259462 0.28895 0.00997928 0.268493 -0.27411 0.123395 0.0284769 0.118347 -0.334627 -0.220051 -0.101127 0.236201 -0.371194 0.358703 -0.266106 -0.117073 0.151944 -0.0196663 0.0619591 -0.0151721 0.109402 0.0932575 0.111721 -0.0172593 -0.145442 -0.316766 -0.27545 -0.199796 -0.0379597 -0.153204 0.229243 -0.037255 0.171234 -0.262794 -0.164198 -0.0856588 0.0648736 -0.0650783 0.16585 0.0438564 0.439048 -0.0344285 -0.191062 0.125396 0.497694 0.121227 -0.0418502 0.00810189 -0.0191599 0.119156 -0.130275 0.0318126 -0.0808208 0.00384208
13 0.182772 0.0853108 -0.0841712 -0.0905768 0.154537 -0.139491 0.184008 -0.0760798 -0.0532809 -0.168187 -0.136193 -0.11151 0.179813 0.103115 0.168567 -0.0995642 0.217527 -0.163801 -0.0807282 0.11839 -0.00498431 -0.0341443 0.334629 -0.0938686 0.0503422 -0.399541 0.502383 0.459458 0.0784205 0.000497035 -0.0199314 0.185717 -0.185362 0.115088 -0.0416268 -0.00967974 0.0678602 -0.131261 -0.166039 -0.070689 -0.14115 0.0363572 -0.0196652 0.300753 -0.159548 0.0791204 0.0970567 -0.361504 0.0453883 0.032215 0.177041 -0.131617 0.0974598 0.268304 -0.0747291 -0.341516 0.402123 0.0345219 -0.0564706 0.186047 0.00604593 -0.270802 0.379727 0.114954 0.0825918 -0.37378 0.125185 -0.104334 -0.236932 0.208666 0.274614 0.181645 -0.363988 -0.0770028 0.308473 0.0723595 0.131767 0.219452 -0.253722 0.148573 0.066576 0.335765 -0.207396 -0.387306 -0.0311145 0.267865 -0.398999 0.347505 -0.288805 -0.0804478 0.00381647 -0.130514 0.105028 0.0723296 0.209115 0.00839827 0.221892 0.0183215 -0.154267 -0.328537 -0.258984 -0.196204 -0.149342 -0.235663 0.321092 -0.141918 0.260124 -0.230501 -0.0475348 -0.0373508 0.121756 -0.0567854 0.0762264 -0.0735168 0.487184 0.0147695 -0.203141 0.12579 0.534747 0.153304 -0.072577 -0.0157728 -0.0816932 0.114885 -0.201631 0.0173706 0.10487 0.157932
4 0.19502 0.147085 0.038795 0.00894275 0.261697 0.0639602 0.184881 -0.0525081 0.0430353 -0.17074 -0.222109 -0.266549 -0.0145048 0.0746729 0.115686 -0.0674151 0.228728 -0.156467 -0.155663 0.146262 0.0119412 -0.0490839 0.538082 0.0221978 -0.127462 -0.264652 0.443368 0.374696 0.094589 -0.0204257 -0.0831232 0.150479 -0.181613 0.0980299 0.0896548 0.201818 0.071274 -0.117108 -0.23787 0.0898733 -0.318159 0.286491 0.104701 0.188737 -0.12521 0.0299389 0.105328 -0.33188 0.193325 0.0388887 0.169198 -0.29661 0.194149 0.289733 -0.0830424 -0.321903 0.361607 0.0516612 0.0874206 0.285384 0.00290624 -0.308906 0.291007 0.201997 0.0837174 -0.262512 -0.16239 -0.0465795 -0.254064 0.0685603 0.0679094 0.0622855 -0.327014 0.0320669 0.232227 0.178862 -0.039399 0.289845 -0.28514 0.147934 0.110514 0.15568 -0.281099 -0.219421 -0.0917175 0.384967 -0.389758 0.324108 -0.314499 -0.0843872 0.108661 -0.0632401 0.129248 -0.0655056 0.0706784 0.0716061 0.14181 -0.0128456 -0.048661 -0.179369 -0.179414 -0.15624 -0.0236704 -0.0772214 0.260511 -0.0844142 0.154385 -0.326574 -0.191751 -0.0917941 0.106613 -0.108037 0.277177 0.0820994 0.285051 -0.0754615 -0.20521 0.134817 0.455533 0.147738 -0.0280027 0.0581697 0.0180775 0.0421722 -0.129586 0.0801615 -0.0586558 0.0581993
6 0.217783 0.283938 -0.105227 -0.116963 0.335228 -0.183067 0.046084 -0.196195 -0.0690364 -0.235498 -0.261637 -0.182949 0.10311 -0.0164856 0.0687865 0.0691168 0.191325 -0.251914 0.109966 -0.0504705 -0.00143787 -0.147582 0.39697 -0.124116 -0.000395683 -0.30296 0.559655 0.389406 0.234529 0.0190214 -0.16169 0.182693 -0.308239 0.00830708 0.0569562 0.076905 0.142186 -0.0115051 -0.156677 0.090692 -0.331003 0.148515 -0.114608 0.360958 -0.178322 0.293913 0.150607 -0.236115 0.128756 0.0338474 0.208088 -0.171454 -0.00329179 0.316277 -0.375364 -0.341569 0.395484 -0.0951614 0.138303 0.308118 -0.038904 -0.273806 0.474725 0.187186 0.117292 -0.247308 0.103198 -0.273268 -0.189468 0.21858 0.200032 0.32617 -0.44982 -0.109341 0.289069 0.06175 0.0805424 0.218006 -0.163008 0.0798105 0.269572 0.261439 -0.389277 -0.38581 -0.129468 0.300985 -0.455767 0.567346 -0.302921 -0.198338 0.0278266 -0.0958056 0.0423653 0.0145256 0.20297 -0.0439895 0.287629 -0.0318999 -0.159869 -0.256023 -0.0803584 -0.00826771 -0.121569 -0.0954757 0.367108 -0.342944 0.0990537 -0.308055 -0.207644 -0.0454476 0.0346205 -0.153716 0.190064 -0.0725871 0.34613 -0.0098144 -0.23223 0.36054 0.620186 0.177172 -0.0520215 -0.0874178 -0.024836 0.0622613 -0.287503 0.0272357 -0.0393202 0.24659
11 0.192185 0.271971 -0.109749 -0.116073 0.295586 -0.185245 0.0201029 -0.175669 -0.0570764 -0.214907 -0.226194 -0.147486 0.0880063 -0.024018 0.0649125 0.0718083 0.166559 -0.222498 0.101484 -0.0462664 -0.00280693 -0.136517 0.347637 -0.122357 0.00894147 -0.26853 0.504526 0.356235 0.220505 0.0254694 -0.147303 0.176583 -0.290753 -0.000916685 0.0605225 0.0659165 0.128493 -0.00887513 -0.122895 0.097705 -0.291855 0.123706 -0.119211 0.32755 -0.158414 0.280719 0.134585 -0.217954 0.13323 0.0288684 0.17756 -0.161712 -0.0120249 0.278297 -0.343874 -0.309687 0.350017 -0.088028 0.127158 0.281256 -0.0282223 -0.245209 0.443693 0.164128 0.100585 -0.225401 0.111373 -0.254002 -0.157864 0.194812 0.177562 0.300723 -0.41295 -0.0964263 0.281212 0.0604862 0.0630518 0.192774 -0.131437 0.0784403 0.250193 0.226629 -0.356323 -0.361291 -0.126247 0.270836 -0.40498 0.514238 -0.276753 -0.185778 0.0195276 -0.0809902 0.0380809 0.00862725 0.187792 -0.049509 0.254399 -0.0237159 -0.149714 -0.228101 -0.0717431 0.00390795 -0.103149 -0.0872588 0.340594 -0.309152 0.0933108 -0.283147 -0.179145 -0.0365047 0.0226633 -0.142539 0.152476 -0.0668372 0.311261 -0.00992091 -0.192997 0.329535 0.55256 0.166725 -0.0505322 -0.085789 -0.0318107 0.0658919 -0.270097 0.0236407 -0.0307414 0.212451
17 0.2026 0.318168 -0.140058 -0.151959 0.359825 -0.214665 0.030579 -0.185659 -0.0642019 -0.266591 -0.264142 -0.186779 0.111265 -0.0355872 0.0693635 0.0642726 0.214653 -0.248084 0.0912421 -0.0256298 -0.0356379 -0.17638 0.436751 -0.135793 0.0126 -0.320388 0.603059 0.44926 0.252928 0.069888 -0.189705 0.217403 -0.357585 -0.0306715 0.0641407 0.0969163 0.168733 -0.0253891 -0.130795 0.109783 -0.348557 0.14281 -0.13506 0.386917 -0.181468 0.346005 0.126721 -0.284169 0.166604 0.0268666 0.189409 -0.204983 0.000241915 0.320078 -0.376735 -0.378205 0.427868 -0.11223 0.116442 0.311688 -0.0106558 -0.282957 0.53663 0.193725 0.135649 -0.298581 0.127958 -0.297186 -0.170999 0.234229 0.182423 0.348182 -0.460536 -0.113033 0.345921 0.114409 0.0715931 0.249844 -0.169635 0.111992 0.268475 0.243337 -0.445407 -0.415796 -0.150836 0.325261 -0.488813 0.629087 -0.320398 -0.231727 0.0670701 -0.0655975 0.0305547 0.0179048 0.222997 -0.0316999 0.264737 -0.0436931 -0.195211 -0.283578 -0.123299 -0.0191943 -0.113071 -0.114873 0.391736 -0.343514 0.126203 -0.329365 -0.229024 -0.0558621 0.0184064 -0.17115 0.177846 -0.061563 0.401353 -0.0270019 -0.239345 0.386687 0.664359 0.205733 -0.0610472 -0.0959502 -0.0298547 0.106519 -0.312514 0.017587 -0.0529709 0.233568
7 0.201234 0.274323 -0.135725 -0.115143 0.330248 -0.171496 0.036856 -0.165461 -0.0462718 -0.231165 -0.238596 -0.177239 0.104089 -0.00544781 0.0616093 0.053849 0.192423 -0.23879 0.0952468 -0.0112513 -0.020119 -0.156827 0.395506 -0.105126 0.0263181 -0.299748 0.547649 0.408485 0.229222 0.0401234 -0.143979 0.182981 -0.307927 -0.00134612 0.0610821 0.101279 0.152809 -0.0295306 -0.140168 0.0952117 -0.32255 0.13289 -0.111308 0.346225 -0.167585 0.28279 0.127021 -0.260748 0.147533 0.046877 0.194431 -0.182861 0.0163802 0.289903 -0.34982 -0.332372 0.396238 -0.0876884 0.100652 0.281429 -0.0237311 -0.271778 0.473683 0.177024 0.116281 -0.270095 0.0954851 -0.263026 -0.159964 0.189896 0.165692 0.305338 -0.412498 -0.10117 0.292514 0.106235 0.0634308 0.219014 -0.161769 0.0930907 0.23484 0.230625 -0.385569 -0.368721 -0.120306 0.288459 -0.432587 0.553872 -0.295306 -0.190219 0.0451114 -0.0793596 0.0350903 0.00312126 0.193906 -0.0312039 0.268997 -0.0298381 -0.166302 -0.279701 -0.117063 -0.035229 -0.0995295 -0.116026 0.341775 -0.296281 0.108151 -0.293995 -0.187695 -0.0456901 0.0109144 -0.141449 0.167697 -0.0602279 0.366016 -0.0190024 -0.22851 0.334421 0.613024 0.165073 -0.0590424 -0.0959773 -0.0229617 0.0792769 -0.267634 0.0274532 -0.053483 0.201549
18 0.133173 0.283605 -0.146028 -0.118531 0.163582 -0.14974 0.0208787 -0.0383698 0.0337404 -0.216416 -0.0831943 -0.0853277 0.0030348 -0.0111292 0.125798 -0.00194175 0.191168 -0.0874389 -0.113808 0.143682 -0.0495439 -0.0264146 0.333335 -0.140009 -0.00635851 -0.195235 0.4146 0.386659 0.12742 0.0420947 -0.0998502 0.209365 -0.269392 -0.00253552 0.14244 0.102112 0.0804588 -0.120476 -0.0739134 0.198365 -0.171436 0.0824635 -0.0627511 0.230057 -0.107561 0.189049 0.0607998 -0.35693 0.282421 -0.0134461 0.0750907 -0.282367 0.0442785 0.218938 -0.0727636 -0.308823 0.248787 0.0177594 0.034998 0.254267 0.0720485 -0.218508 0.402155 0.109585 0.0271994 -0.283004 0.0577223 -0.113922 -0.156091 0.0745749 0.0179126 0.156716 -0.375384 0.037304 0.434017 0.2038 -0.0840699 0.247347 -0.13663 0.215683 0.147608 0.0789758 -0.290438 -0.299458 -0.147507 0.360851 -0.303346 0.35192 -0.31237 -0.181201 0.0856577 0.0457821 0.1634 -0.0312009 0.140416 -0.00314437 0.0630796 -0.00681966 -0.12636 -0.16117 -0.206988 -0.0564005 -0.0250868 -0.0775563 0.349221 -0.0922164 0.225437 -0.354796 -0.126014 -0.00353293 0.0154634 -0.113427 0.0872171 0.0339024 0.332405 -0.0965528 -0.0508213 0.189837 0.375902 0.191812 -0.0407776 0.00328492 -0.0848503 0.117145 -0.239898 -0.00509665 -0.0305737 -0.0157268
32 0.0668319 0.0560666 -0.29292 0.00686419 0.326426 0.0325247 -0.0983921 -0.0823314 0.0990501 -0.101061 -0.0171966 -0.179829 0.106162 0.016402 -0.144787 0.029936 0.0547196 -0.185766 0.0131263 0.0898049 -0.0920203 -0.398932 0.267004 0.0928242 0.0632296 -0.225621 0.320887 0.213579 0.223927 0.149983 -0.120332 0.0418684 -0.179661 -0.138362 -0.0201673 0.159459 0.304891 -0.108074 -0.0590267 0.102219 -0.264857 0.0521783 0.00630565 0.341651 -0.149357 0.243484 -0.0996499 -0.231789 0.0857946 0.178869 0.0768127 0.00919822 0.0542078 0.0238447 -0.428896 -0.169438 0.332753 -0.173168 -0.12748 0.0738828 -0.137493 -0.195405 0.203473 0.161322 0.134604 -0.214218 -0.0454013 -0.112103 0.0399531 -0.111147 -0.061631 0.160958 -0.144053 -0.231437 0.0892961 0.204022 0.109231 -0.0335964 -0.166128 -0.100562 0.0691656 0.0976186 -0.297599 -0.121979 0.0422128 0.0341069 -0.178998 0.484438 -0.0779257 -0.251197 0.138963 -0.00400074 -0.127647 -0.0790653 0.0987851 -0.15166 0.191571 -0.0999695 -0.133971 -0.285654 -0.175405 -0.00186176 0.0593542 -0.138856 0.00770165 -0.0498831 0.0859872 -0.0377142 -0.155112 -0.126865 -0.20449 0.105015 0.0940958 -0.119879 0.323241 0.0205203 -0.232836 0.30346 0.389261 -0.0879984 -0.0940451 -0.265849 0.160762 0.0440447 -0.165914 0.000793042 -0.247943 0.0959769
31 0.0631703 0.129897 -0.40043 0.0699702 0.202728 -0.0213846 -0.0387507 0.0262006 0.20883 -0.0940005 0.130399 -0.103411 -0.00369063 0.0653731 0.000334571 -0.0211752 0.08516 -0.115205 -0.235624 0.297703 -0.0770484 -0.166308 0.236494 -0.0181379 0.0832904 -0.194001 0.181165 0.274441 0.10101 0.045095 0.0393424 0.112391 -0.183601 0.00296622 0.135012 0.179584 0.185947 -0.236013 -0.0929533 0.277201 -0.18462 0.000163622 0.00778761 0.274672 -0.0552767 0.0798666 -0.102037 -0.480459 0.292483 0.135248 0.0227783 -0.155065 0.0850673 0.0843794 -0.172009 -0.218834 0.18907 0.0459937 -0.226613 0.0931196 -0.0267604 -0.278681 0.171155 0.0560382 0.0137586 -0.292525 -0.0510112 -0.0136898 -0.0756345 -0.25622 -0.233113 0.0502925 -0.265741 -0.0220657 0.354046 0.307433 -0.148899 0.0160672 -0.0916396 0.0578207 0.0671577 0.0108366 -0.255225 -0.139763 0.0307036 0.223214 -0.0865152 0.235155 -0.185573 -0.199574 0.0827793 0.105607 0.163705 -0.142027 0.037167 -0.0711248 0.0568443 -0.0325813 -0.0740229 -0.231407 -0.294699 -0.106959 0.120798 -0.0489795 0.108844 0.121059 0.237277 -0.254892 -0.0835423 0.00343306 -0.149301 0.0772607 0.00529373 -0.0372556 0.376983 -0.00468728 -0.0557398 0.205111 0.212455 -0.0819421 -0.0791169 -0.131258 0.0630699 0.0553919 -0.200645 -0.0494659 -0.213217 -0.14723
16 0.0539522 0.0404516 -0.503295 0.167461 0.347557 0.0412898 -0.0935424 -0.0405231 0.238376 -0.0198541 0.141153 -0.169434 0.0553729 0.092824 -0.152697 0.0343296 -0.000851226 -0.237974 -0.11833 0.240256 -0.0722864 -0.353474 0.194568 0.0701743 0.167814 -0.232856 0.139733 0.192523 0.161063 0.0437816 0.0725418 0.0418305 -0.155915 -0.0164463 0.048293 0.217383 0.301386 -0.239519 -0.122297 0.231078 -0.281214 -0.00196807 -0.00564564 0.371907 -0.0546215 0.0977648 -0.151577 -0.409315 0.180649 0.257996 0.0716814 0.0134128 0.0582872 0.047967 -0.436464 -0.159807 0.23074 -0.0430319 -0.302258 0.0261231 -0.170465 -0.303853 0.067809 0.0727682 0.0710998 -0.250492 -0.100068 -0.0816928 -0.020163 -0.363858 -0.281879 0.109744 -0.21769 -0.167602 0.174832 0.286036 -0.0556651 -0.156477 -0.0855532 -0.16376 0.0879202 0.072231 -0.307263 -0.0794012 0.130644 0.047227 -0.0523738 0.326883 -0.0714321 -0.217653 0.0430045 0.0397354 0.0402703 -0.18221 0.0155208 -0.142285 0.200384 -0.0706615 -0.0790966 -0.338879 -0.234774 -0.0830952 0.142717 -0.047404 -0.0484669 0.0840747 0.125722 -0.134953 -0.110648 -0.0344364 -0.26229 0.17671 0.0353058 -0.156449 0.395066 0.107906 -0.186243 0.317529 0.288927 -0.250257 -0.106276 -0.284169 0.194068 -0.0160616 -0.196316 -0.044753 -0.332187 -0.0526223
30 0.137435 -0.0515076 -0.441265 0.0867746 0.273938 0.193712 -0.132923 -0.0311126 0.207674 -0.0666906 0.144942 -0.193516 0.0962292 0.149702 -0.186642 -0.015269 0.0187624 -0.190999 -0.137633 0.238032 -0.0500629 -0.490465 0.296383 0.136559 0.0307103 -0.309994 0.308632 0.189456 0.248121 0.10403 -0.0824925 -0.0489581 -0.0965924 -0.122184 0.0347543 0.167269 0.360361 -0.219852 -0.136246 0.196566 -0.260898 0.00335672 0.122523 0.404906 -0.213151 0.159879 -0.149042 -0.42241 0.142132 0.289041 0.122124 0.0132629 0.14813 -0.069474 -0.437439 -0.155012 0.397199 -0.109012 -0.216428 0.0684045 -0.210404 -0.281241 0.119701 0.211343 0.0765749 -0.222458 -0.120064 0.0986938 -0.00546017 -0.309354 -0.140171 0.0888526 -0.146877 -0.299313 0.0908755 0.237626 0.0834192 -0.151756 -0.219573 -0.117544 -0.00152554 0.131516 -0.190249 -0.0583325 0.168746 0.0942882 -0.0646635 0.433415 -0.0630089 -0.308575 0.154923 0.0219961 -0.0648624 -0.14453 0.0954241 -0.287437 0.216829 -0.117879 -0.0708545 -0.309611 -0.293065 -0.0357159 0.104798 -0.17146 -0.067586 0.125664 0.233528 -0.00866434 -0.084356 -0.141328 -0.305308 0.274374 0.088883 -0.176499 0.375933 0.00217061 -0.234505 0.265983 0.28612 -0.229567 -0.147263 -0.37162 0.255904 -0.00175468 -0.151593 -0.0213053 -0.309462 0.0260024
24 0.0473986 0.0169995 -0.375191 0.0687772 0.338349 0.0732257 -0.056303 -0.0338465 0.170888 -0.0765086 0.0649636 -0.20069 0.0942303 0.0570994 -0.136169 -0.0165186 0.0591103 -0.179676 -0.125769 0.222397 -0.106906 -0.405433 0.304366 0.109251 0.0763104 -0.264847 0.265666 0.244074 0.178953 0.146984 -0.0550791 0.0478354 -0.167025 -0.105657 -0.0114995 0.210499 0.325066 -0.206474 -0.0967871 0.146231 -0.27128 0.0406948 0.0555508 0.363816 -0.122646 0.170479 -0.166598 -0.37274 0.136326 0.213586 0.0544398 -0.0011419 0.0965774 0.0255661 -0.377369 -0.202915 0.326683 -0.114774 -0.254608 0.0440736 -0.134849 -0.260999 0.141548 0.138134 0.124436 -0.286725 -0.105534 -0.0554962 0.00221567 -0.224717 -0.17253 0.110901 -0.15884 -0.203448 0.138727 0.295867 0.0472635 -0.0552207 -0.195463 -0.099048 0.0256762 0.0853056 -0.311471 -0.0910822 0.0928522 0.0641659 -0.15019 0.431512 -0.0805565 -0.259609 0.165027 0.0384815 -0.0667154 -0.110901 0.0648382 -0.135008 0.159496 -0.100164 -0.12054 -0.330661 -0.270816 -0.0817839 0.100294 -0.132857 -0.0194476 0.0596755 0.15781 -0.0746048 -0.157487 -0.122078 -0.22064 0.16154 0.082686 -0.107146 0.4151 0.0406108 -0.23178 0.284084 0.356308 -0.148943 -0.107241 -0.267232 0.19254 0.0481288 -0.160534 -0.01986 -0.296883 0.0157908
29 -0.102396 0.0127846 -0.0820269 0.00396948 0.357467 -0.0537175 0.155393 -0.0769499 0.0268885 -0.0819042 -0.0945452 -0.213429 0.108527 -0.132456 -0.0322359 -0.064527 0.11538 -0.0980895 -0.216751 0.13155 -0.136411 -0.274689 0.368441 0.0583618 -0.0611774 -0.215185 0.186945 0.197562 0.0398685 0.226861 -0.127571 0.144449 -0.212213 -0.144295 -0.181122 0.170971 0.264512 -0.158933 -0.0750571 -0.0159299 -0.24892 0.142977 0.0698957 0.30896 -0.0537351 0.198679 -0.227339 -0.209419 0.000743565 0.0602902 -0.0811433 0.0451994 -0.0203972 0.141898 -0.215001 -0.319928 0.207882 -0.184706 -0.245101 0.0266485 -0.0458537 -0.179584 0.0808238 0.0717342 0.183617 -0.341098 -0.0820631 -0.155118 -0.0591754 0.0142831 -0.0877791 0.13996 -0.175726 -0.101896 0.127661 0.242861 0.102407 0.0741708 -0.251286 -0.100839 0.0422322 0.0957543 -0.397951 -0.0929563 0.0251808 0.0153976 -0.310599 0.416325 -0.0476509 -0.232737 0.25743 0.0597833 -0.135631 0.0458321 0.0163851 0.0342052 -0.0125435 -0.124014 -0.138224 -0.236554 -0.168185 -0.0822638 0.0338131 -0.0153281 0.0723344 -0.113056 0.0893639 -0.105346 -0.339049 -0.165563 -2.06708e-05 0.0250074 0.145454 -0.0023868 0.408932 0.108839 -0.238643 0.296522 0.358888 0.0115225 0.00118011 -0.0653066 0.142775 0.093408 -0.155346 -0.0219996 -0.188909 0.155449
27 0.0587281 -0.0304147 -0.439022 0.116188 0.317369 0.0732517 -0.0242361 -0.0386405 0.176161 -0.0444315 0.09783 -0.201296 0.0966604 0.0779281 -0.126637 -0.0312702 0.0478465 -0.187878 -0.214623 0.246222 -0.058621 -0.428676 0.319516 0.0781523 0.00640603 -0.303527 0.187383 0.176771 0.176167 0.131397 -0.0515443 -0.0060235 -0.158149 -0.10447 -0.000334118 0.171443 0.341703 -0.208544 -0.154079 0.199908 -0.294784 0.00158501 0.0979818 0.411481 -0.123528 0.15635 -0.206485 -0.468808 0.14254 0.235918 0.0447429 0.0259566 0.086082 0.00501592 -0.398038 -0.228929 0.315179 -0.0996599 -0.306694 0.0158523 -0.156014 -0.319619 0.0701265 0.126042 0.0966264 -0.286461 -0.0717091 0.0347514 -0.0506561 -0.255948 -0.205316 0.118787 -0.197369 -0.225164 0.16059 0.259973 -0.000858037 -0.116052 -0.152329 -0.110671 0.03252 0.134762 -0.282525 -0.0680772 0.182988 0.107194 -0.109885 0.391742 -0.0366074 -0.290898 0.169042 0.0789615 -0.0203118 -0.0887102 0.0482399 -0.166647 0.133639 -0.134465 -0.0659792 -0.288079 -0.277547 -0.0920989 0.117307 -0.0549708 -0.0235822 0.0549459 0.210447 -0.0726044 -0.176608 -0.102821 -0.229835 0.186944 0.0612295 -0.130836 0.416887 0.0768305 -0.231053 0.32061 0.262632 -0.212366 -0.114123 -0.285131 0.249627 0.0177569 -0.17246 -0.0730453 -0.314524 0.0494842
9 0.108192 0.0707413 -0.161873 0.132526 0.307686 0.0198268 0.0596907 -0.125324 0.115187 -0.0554364 -0.0232667 -0.183495 0.0206776 0.0489576 -0.0188758 0.0315791 0.0400633 -0.245368 -0.106467 0.111197 0.010532 -0.163008 0.256133 0.00970912 0.0437193 -0.231121 0.249216 0.172711 0.0929433 -0.0879968 0.0432499 0.109396 -0.129437 0.0968609 -0.00793179 0.132048 0.165711 -0.179441 -0.195245 0.093635 -0.250697 0.169266 0.0186061 0.316814 -0.0858746 0.0297175 -0.00365769 -0.230283 0.0682328 0.15185 0.128693 -0.0400316 0.0189501 0.211155 -0.32609 -0.233358 0.216651 -0.0181491 -0.0747843 0.18278 -0.163921 -0.268672 0.0903127 0.110943 0.061032 -0.202503 -0.133373 -0.106355 -0.181333 -0.153498 -0.0348253 0.118272 -0.345454 -0.0870464 0.14557 0.0964679 0.0401807 -0.0360196 -0.199663 -0.149882 0.187396 0.181525 -0.255374 -0.166693 0.0266252 0.112341 -0.222565 0.285982 -0.178213 -0.132056 -0.0206606 -0.0899997 0.0762781 -0.128644 0.019451 -0.0931654 0.225151 -0.0132558 -0.0545085 -0.240488 -0.0783632 -0.0434653 0.0138232 -0.00707341 0.110951 -0.0788232 0.0873772 -0.231366 -0.169929 -0.0563983 -0.0295786 0.0800913 0.183083 -0.119252 0.30303 0.115078 -0.187116 0.277175 0.358441 -0.0864894 -0.0165948 -0.105677 0.104209 -0.0685856 -0.209552 0.0393308 -0.122337 0.0998341
3 0.163741 0.0534138 -0.139188 0.0443832 0.226416 0.0195562 0.136626 -0.0121221 0.0721824 -0.107827 -0.121872 -0.202383 0.0833382 0.143473 0.0796394 -0.0947166 0.183951 -0.179727 -0.088316 0.184941 -0.0208047 -0.0919209 0.364914 0.0560047 0.055274 -0.304642 0.359514 0.401853 0.0778716 0.00356231 0.0371149 0.119186 -0.137708 0.126577 0.0346532 0.161993 0.0923514 -0.13357 -0.184451 0.0186709 -0.242476 0.115762 0.0475692 0.20221 -0.089401 -0.00905549 0.0656857 -0.36721 0.130166 0.100827 0.170515 -0.176614 0.204225 0.205766 -0.116123 -0.241689 0.362965 0.0708224 -0.0913622 0.130778 -0.0147457 -0.299461 0.26191 0.120067 0.09195 -0.301974 -0.0654527 -0.0731976 -0.150355 0.0098807 0.0550432 0.0549865 -0.227639 -0.0318911 0.200533 0.188653 -0.0030991 0.184233 -0.206565 0.104349 0.0327678 0.182189 -0.225408 -0.225933 0.00401497 0.243723 -0.285108 0.260405 -0.240153 -0.0338166 0.0343025 -0.0920476 0.0994556 -0.0619372 0.0926094 0.061882 0.201824 0.0139965 -0.0886661 -0.30766 -0.258594 -0.22864 -0.00366091 -0.183919 0.14818 -0.00677994 0.152103 -0.20686 -0.057089 -0.0437612 0.0267944 -0.0418203 0.113004 -0.00101338 0.369587 -0.011609 -0.214938 0.0957501 0.442099 0.0340828 -0.0840178 -0.0292623 0.0126744 0.071574 -0.108638 0.0433705 -0.0696339 0.00934142
14 0.0642015 0.0491496 -0.137047 0.00897392 0.179165 -0.0932368 0.182676 -0.0657244 0.0457952 -0.109188 -0.00104866 -0.11736 0.0848669 0.0186831 0.126132 -0.0873978 0.142402 -0.117077 -0.311346 0.208898 -0.021632 -0.0881295 0.324582 -0.0817039 -0.0522482 -0.322181 0.292342 0.283098 0.0271523 0.0193563 -0.0152012 0.166822 -0.175592 0.0413833 -0.0506629 0.0277593 0.139237 -0.214962 -0.164439 0.0617085 -0.141018 0.0695965 0.0600842 0.334663 -0.116593 0.068027 -0.0803635 -0.398162 0.0945852 0.0544578 0.0342514 -0.076473 0.0246514 0.206658 -0.0847897 -0.366991 0.245175 0.0079464 -0.177209 0.150367 -0.0366392 -0.271907 0.166897 0.0721227 0.0505611 -0.363742 0.0133334 -0.00737911 -0.238316 0.000989126 0.0497601 0.116578 -0.387244 -0.052352 0.331542 0.129097 0.0477381 0.0826207 -0.245755 0.0434683 0.0923953 0.229951 -0.229337 -0.250948 0.0398024 0.229272 -0.288988 0.272066 -0.210692 -0.182579 0.0838744 -0.00347531 0.121493 0.0230282 0.0900167 -0.0476586 0.0596427 -0.0335956 -0.0864962 -0.225773 -0.235357 -0.126489 -0.0412772 -0.058463 0.24685 -0.0583064 0.29144 -0.257538 -0.173477 -0.0580581 0.0653319 0.044018 0.0900922 -0.062547 0.459294 0.0766895 -0.134711 0.208499 0.314804 0.0398618 -0.0258159 -0.0260619 0.0212861 0.0546728 -0.232058 -0.0280688 -0.00414098 0.109377
12 0.169345 0.23228 -0.0890677 -0.120349 0.24247 -0.17832 0.0377926 -0.127466 -0.0619215 -0.205355 -0.207272 -0.126154 0.0963579 -0.000624145 0.0811502 0.0331351 0.174099 -0.180113 0.0848025 -0.0128639 -0.0227396 -0.0852828 0.309751 -0.104969 0.0368203 -0.249689 0.479072 0.370535 0.173941 0.0239316 -0.1168 0.176426 -0.263153 0.0147998 0.0485889 0.048176 0.100018 -0.0245789 -0.095216 0.053498 -0.227976 0.0945758 -0.113751 0.26652 -0.1336 0.221362 0.131878 -0.212697 0.117933 0.00577881 0.160064 -0.170737 0.0135557 0.254257 -0.239876 -0.281336 0.330339 -0.0547814 0.0957112 0.237756 0.00335803 -0.211802 0.430909 0.134518 0.0923192 -0.237298 0.115545 -0.223374 -0.139248 0.202658 0.184638 0.248817 -0.351932 -0.071696 0.273679 0.0748455 0.0637448 0.210785 -0.136838 0.110684 0.187989 0.202915 -0.305042 -0.343249 -0.125957 0.251648 -0.377455 0.445097 -0.269598 -0.133324 0.0182699 -0.0831874 0.0495564 0.0201926 0.179398 -0.00963329 0.220693 -0.00580877 -0.159391 -0.232984 -0.107994 -0.0402789 -0.105021 -0.125033 0.317516 -0.24675 0.104797 -0.2512 -0.127868 -0.0232904 0.0383468 -0.141249 0.115873 -0.0427795 0.313262 -0.0223253 -0.174143 0.248018 0.520928 0.181275 -0.0537884 -0.0499816 -0.0640218 0.0899213 -0.228565 0.0295051 0.00369745 0.159898
26 0.0237228 0.0255888 -0.292965 -0.123866 0.329083 0.145788 -0.184389 -0.0117984 0.0933002 -0.158393 0.0104693 -0.201547 0.169339 0.00404231 -0.240049 -0.0129605 0.0837305 -0.0847275 0.0612643 0.122851 -0.194784 -0.561088 0.33298 0.198534 0.0608268 -0.236179 0.41937 0.273704 0.285026 0.341857 -0.256804 0.00487993 -0.167126 -0.314408 -0.0625824 0.243928 0.394221 -0.12794 0.0379436 0.0569237 -0.244577 0.024419 0.0698216 0.327143 -0.217236 0.362988 -0.18172 -0.211251 0.0822109 0.190474 0.0363253 0.0241502 0.111617 -0.109513 -0.393987 -0.130694 0.42682 -0.283563 -0.163585 0.022816 -0.101596 -0.0964687 0.275252 0.237518 0.199053 -0.245735 -0.083343 -0.0833511 0.173251 -0.0968079 -0.0792361 0.159064 0.0519329 -0.305969 0.00443573 0.34956 0.208612 0.0329557 -0.266517 -0.0535092 -0.094499 0.00510127 -0.309022 -0.0376244 0.000602371 -0.028468 -0.181041 0.638774 -0.0297801 -0.344622 0.340212 0.0594489 -0.306957 -0.0410582 0.158453 -0.186681 0.13918 -0.161674 -0.202222 -0.347091 -0.296387 0.00421994 0.0671427 -0.288098 -0.0720765 0.0475576 0.120987 0.111754 -0.154031 -0.237751 -0.296243 0.168582 0.106423 -0.0835179 0.361668 -0.0997264 -0.270867 0.23724 0.442481 -0.0581184 -0.131486 -0.356631 0.199487 0.139898 -0.0776705 0.00688993 -0.331533 0.0607303
5 0.194507 0.254655 -0.131692 -0.101291 0.294309 -0.18484 0.0283622 -0.157948 -0.0491448 -0.209343 -0.22465 -0.152849 0.0939538 0.00196486 0.0672226 0.0528279 0.180686 -0.229161 0.092028 -0.0170636 -0.0108587 -0.129725 0.347358 -0.114282 0.0289331 -0.280047 0.508938 0.381732 0.213915 0.0188144 -0.124414 0.178912 -0.287814 0.0154125 0.0609285 0.0657708 0.130042 -0.0200958 -0.124161 0.0882968 -0.290244 0.109984 -0.120516 0.322938 -0.152133 0.249352 0.133637 -0.24871 0.138592 0.0329989 0.187125 -0.17756 0.01394 0.272419 -0.322021 -0.303114 0.367417 -0.0638832 0.102393 0.266191 -0.0194992 -0.259922 0.447664 0.152339 0.0997059 -0.248232 0.111748 -0.239684 -0.156393 0.182456 0.173721 0.282811 -0.397623 -0.0944149 0.29367 0.074182 0.0537302 0.196558 -0.129784 0.0898676 0.231334 0.226575 -0.346385 -0.367441 -0.110255 0.278887 -0.39918 0.498674 -0.28134 -0.162743 0.0104199 -0.0832802 0.0554303 0.0070871 0.187642 -0.0323612 0.261721 -0.0167178 -0.156003 -0.249179 -0.103112 -0.0301872 -0.0972804 -0.112343 0.32743 -0.281318 0.103126 -0.282137 -0.15824 -0.0264002 0.0170082 -0.138704 0.139901 -0.0620358 0.339499 -0.0109319 -0.202374 0.307358 0.561094 0.162479 -0.0604357 -0.0806158 -0.0360984 0.0749031 -0.263426 0.020887 -0.030963 0.189158
22 0.101564 0.280943 -0.215265 -0.0804853 0.205147 -0.181558 0.0181142 -0.0275563 0.0534624 -0.201019 -0.0971921 -0.10023 -0.000636104 -0.015705 0.111713 -0.000239331 0.190443 -0.105776 -0.110653 0.156616 -0.0699778 -0.0466135 0.332814 -0.124473 0.0179 -0.178392 0.358796 0.388701 0.12503 0.0622922 -0.0697379 0.203728 -0.300034 -0.00590571 0.153499 0.122515 0.100115 -0.101194 -0.0627819 0.222445 -0.210482 0.0655005 -0.085102 0.222713 -0.0676394 0.185519 0.0356557 -0.390901 0.308287 -0.00872263 0.0515539 -0.278947 0.0458079 0.205518 -0.11083 -0.294474 0.235476 0.0264512 -0.0203395 0.20574 0.0859582 -0.247945 0.386821 0.0782218 0.0452239 -0.297881 0.0689991 -0.142056 -0.118159 0.0458598 -0.0452926 0.145041 -0.351535 0.0432554 0.439533 0.235768 -0.137536 0.230843 -0.0744738 0.208756 0.147369 0.0506068 -0.329905 -0.289893 -0.115389 0.348743 -0.270228 0.33814 -0.2813 -0.1628 0.0777057 0.0645668 0.168833 -0.0427193 0.112159 0.0418185 0.0534494 -0.0129824 -0.131457 -0.170655 -0.211316 -0.0830056 0.0183288 -0.05126 0.310697 -0.0905685 0.192432 -0.352645 -0.135816 0.02482 -0.00820672 -0.141581 0.047489 0.0461131 0.338208 -0.0704682 -0.0639524 0.218288 0.36308 0.161172 -0.0523391 -0.00470167 -0.0665366 0.127152 -0.237501 -0.0212578 -0.0812025 -0.0362949
15 0.0799796 0.0112734 -0.4978 0.164048 0.341593 0.0649891 -0.0798885 -0.052507 0.218552 -0.0213642 0.126536 -0.178527 0.0873653 0.121573 -0.152878 0.0229931 0.00452493 -0.247242 -0.099075 0.23228 -0.0590026 -0.378911 0.211421 0.0771594 0.15724 -0.276341 0.163377 0.198907 0.17786 0.046725 0.0600521 0.0128127 -0.137013 -0.0140287 0.0350341 0.204587 0.302634 -0.228851 -0.149081 0.197862 -0.29121 -0.0101952 0.00942784 0.393243 -0.0786957 0.102483 -0.138164 -0.419212 0.143677 0.273143 0.102188 0.0366889 0.0740672 0.0457803 -0.459719 -0.167443 0.274842 -0.05157 -0.300853 0.019419 -0.185134 -0.321631 0.0723534 0.0914492 0.0798892 -0.25095 -0.0865453 -0.0647032 -0.0362972 -0.334494 -0.236855 0.126278 -0.207101 -0.199665 0.137602 0.262571 -0.0224819 -0.158396 -0.10266 -0.169765 0.0720692 0.119495 -0.288722 -0.0814933 0.159812 0.0437317 -0.0712078 0.346806 -0.0609901 -0.220321 0.0462939 0.0220339 0.0188695 -0.164661 0.0350687 -0.156032 0.232907 -0.0758445 -0.0751333 -0.362708 -0.241086 -0.0966957 0.120709 -0.0706567 -0.0531236 0.0669079 0.133848 -0.104329 -0.107233 -0.0455639 -0.255196 0.191565 0.0441293 -0.173082 0.408876 0.114259 -0.219974 0.31708 0.309702 -0.26474 -0.117321 -0.304983 0.211356 -0.0173179 -0.180238 -0.0443553 -0.320961 -0.0139535
25 -0.0182952 0.0167013 -0.253198 -0.0825946 0.379269 0.0715559 -0.0939992 -0.0355412 0.062493 -0.12844 -0.0596174 -0.222466 0.181265 -0.030448 -0.205202 -0.0215682 0.099127 -0.116284 0.0508418 0.104392 -0.193778 -0.503704 0.333287 0.184258 0.0776692 -0.230607 0.354436 0.277021 0.222305 0.330019 -0.207705 0.0388539 -0.194415 -0.263098 -0.114504 0.245859 0.36922 -0.111458 0.0139 0.00359306 -0.279099 0.044294 0.0370508 0.314947 -0.146441 0.321825 -0.186256 -0.188128 0.0358562 0.167449 0.0186097 0.0508033 0.0831488 -0.0323512 -0.385659 -0.160379 0.385623 -0.263947 -0.20668 -0.0128391 -0.0832074 -0.121439 0.236784 0.182613 0.226404 -0.274757 -0.065719 -0.161773 0.146185 -0.0421022 -0.0830607 0.173209 0.027554 -0.265243 -0.00122458 0.332777 0.186812 0.0502587 -0.240757 -0.0814339 -0.0629956 0.032068 -0.369655 -0.0573973 0.0117825 -0.0589294 -0.233088 0.598796 -0.0170788 -0.280232 0.303528 0.0363713 -0.293983 -0.0123408 0.119896 -0.0862267 0.133519 -0.152031 -0.206805 -0.360789 -0.259144 -0.0507717 0.0593884 -0.233876 -0.0602786 -0.0187557 0.0534552 0.0821462 -0.200192 -0.214381 -0.227445 0.0996702 0.102728 -0.0637103 0.387527 -0.0205814 -0.302699 0.262282 0.473175 -0.048911 -0.10635 -0.290385 0.186978 0.140833 -0.0823888 0.00644681 -0.315425 0.0968995
